digraph Tree {
node [shape=box] ;
0 [label="X[4] <= 304.5\ngini = 0.308\nsamples = 242\nvalue = [196, 46]"] ;
1 [label="X[7] <= 113.0\ngini = 0.169\nsamples = 215\nvalue = [195, 20]"] ;
0 -> 1 [labeldistance=2.5, labelangle=45, headlabel="True"] ;
2 [label="X[4] <= 231.5\ngini = 0.375\nsamples = 16\nvalue = [4, 12]"] ;
1 -> 2 ;
3 [label="gini = 0.0\nsamples = 4\nvalue = [4, 0]"] ;
2 -> 3 ;
4 [label="gini = 0.0\nsamples = 12\nvalue = [0, 12]"] ;
2 -> 4 ;
5 [label="X[4] <= 289.5\ngini = 0.077\nsamples = 199\nvalue = [191, 8]"] ;
1 -> 5 ;
6 [label="X[7] <= 122.5\ngini = 0.032\nsamples = 187\nvalue = [184, 3]"] ;
5 -> 6 ;
7 [label="X[4] <= 256.5\ngini = 0.397\nsamples = 11\nvalue = [8, 3]"] ;
6 -> 7 ;
8 [label="gini = 0.0\nsamples = 7\nvalue = [7, 0]"] ;
7 -> 8 ;
9 [label="X[0] <= 64.0\ngini = 0.375\nsamples = 4\nvalue = [1, 3]"] ;
7 -> 9 ;
10 [label="gini = 0.0\nsamples = 3\nvalue = [0, 3]"] ;
9 -> 10 ;
11 [label="gini = 0.0\nsamples = 1\nvalue = [1, 0]"] ;
9 -> 11 ;
12 [label="gini = 0.0\nsamples = 176\nvalue = [176, 0]"] ;
6 -> 12 ;
13 [label="X[7] <= 160.5\ngini = 0.486\nsamples = 12\nvalue = [7, 5]"] ;
5 -> 13 ;
14 [label="X[3] <= 135.0\ngini = 0.32\nsamples = 5\nvalue = [1, 4]"] ;
13 -> 14 ;
15 [label="gini = 0.0\nsamples = 4\nvalue = [0, 4]"] ;
14 -> 15 ;
16 [label="gini = 0.0\nsamples = 1\nvalue = [1, 0]"] ;
14 -> 16 ;
17 [label="X[0] <= 42.5\ngini = 0.245\nsamples = 7\nvalue = [6, 1]"] ;
13 -> 17 ;
18 [label="gini = 0.0\nsamples = 1\nvalue = [0, 1]"] ;
17 -> 18 ;
19 [label="gini = 0.0\nsamples = 6\nvalue = [6, 0]"] ;
17 -> 19 ;
20 [label="X[3] <= 175.0\ngini = 0.071\nsamples = 27\nvalue = [1, 26]"] ;
0 -> 20 [labeldistance=2.5, labelangle=-45, headlabel="False"] ;
21 [label="gini = 0.0\nsamples = 26\nvalue = [0, 26]"] ;
20 -> 21 ;
22 [label="gini = 0.0\nsamples = 1\nvalue = [1, 0]"] ;
20 -> 22 ;
}
